digraph Tree {
node [shape=box] ;
0 [label="X[0] <= 5.45\ngini = 0.498\nsamples = 70\nvalue = [33, 37]"] ;
1 [label="X[1] <= 2.7\ngini = 0.165\nsamples = 33\nvalue = [30, 3]"] ;
0 -> 1 [labeldistance=2.5, labelangle=45, headlabel="True"] ;
2 [label="gini = 0.0\nsamples = 2\nvalue = [0, 2]"] ;
1 -> 2 ;
3 [label="X[0] <= 5.35\ngini = 0.062\nsamples = 31\nvalue = [30, 1]"] ;
1 -> 3 ;
4 [label="gini = 0.0\nsamples = 27\nvalue = [27, 0]"] ;
3 -> 4 ;
5 [label="X[1] <= 3.2\ngini = 0.375\nsamples = 4\nvalue = [3, 1]"] ;
3 -> 5 ;
6 [label="gini = 0.0\nsamples = 1\nvalue = [0, 1]"] ;
5 -> 6 ;
7 [label="gini = 0.0\nsamples = 3\nvalue = [3, 0]"] ;
5 -> 7 ;
8 [label="X[1] <= 3.45\ngini = 0.149\nsamples = 37\nvalue = [3, 34]"] ;
0 -> 8 [labeldistance=2.5, labelangle=-45, headlabel="False"] ;
9 [label="gini = 0.0\nsamples = 34\nvalue = [0, 34]"] ;
8 -> 9 ;
10 [label="gini = 0.0\nsamples = 3\nvalue = [3, 0]"] ;
8 -> 10 ;
}